{
  "object_classifier_type": "OpenCVMLClassifier",
  "featureExtractor": {
    "feature_extractor_type": "NormalizedFeatureExtractor",
    "featureExtractor": {
      "feature_extractor_type": "DefaultFeatureExtractor",
      "measurements": [
        "Nucleus: Area",
        "Nucleus: Perimeter",
        "Nucleus: Circularity",
        "Nucleus: Max caliper",
        "Nucleus: Min caliper",
        "Nucleus: Eccentricity",
        "Nucleus: DAPI mean",
        "Nucleus: DAPI sum",
        "Nucleus: DAPI std dev",
        "Nucleus: DAPI max",
        "Nucleus: DAPI min",
        "Nucleus: DAPI range",
        "Nucleus: Cy3 mean",
        "Nucleus: Cy3 sum",
        "Nucleus: Cy3 std dev",
        "Nucleus: Cy3 max",
        "Nucleus: Cy3 min",
        "Nucleus: Cy3 range",
        "Nucleus: Cy5 mean",
        "Nucleus: Cy5 sum",
        "Nucleus: Cy5 std dev",
        "Nucleus: Cy5 max",
        "Nucleus: Cy5 min",
        "Nucleus: Cy5 range",
        "Cell: Area",
        "Cell: Perimeter",
        "Cell: Circularity",
        "Cell: Max caliper",
        "Cell: Min caliper",
        "Cell: Eccentricity",
        "Cell: DAPI mean",
        "Cell: DAPI std dev",
        "Cell: DAPI max",
        "Cell: DAPI min",
        "Cell: Cy3 mean",
        "Cell: Cy3 std dev",
        "Cell: Cy3 max",
        "Cell: Cy3 min",
        "Cell: Cy5 mean",
        "Cell: Cy5 std dev",
        "Cell: Cy5 max",
        "Cell: Cy5 min",
        "Cytoplasm: DAPI mean",
        "Cytoplasm: DAPI std dev",
        "Cytoplasm: DAPI max",
        "Cytoplasm: DAPI min",
        "Cytoplasm: Cy3 mean",
        "Cytoplasm: Cy3 std dev",
        "Cytoplasm: Cy3 max",
        "Cytoplasm: Cy3 min",
        "Cytoplasm: Cy5 mean",
        "Cytoplasm: Cy5 std dev",
        "Cytoplasm: Cy5 max",
        "Cytoplasm: Cy5 min",
        "Nucleus/Cell area ratio"
      ]
    },
    "normalizer": {
      "offsets": [
        0.0,
        0.0,
        0.0,
        0.0,
        0.0,
        0.0,
        0.0,
        0.0,
        0.0,
        0.0,
        0.0,
        0.0,
        0.0,
        0.0,
        0.0,
        0.0,
        0.0,
        0.0,
        0.0,
        0.0,
        0.0,
        0.0,
        0.0,
        0.0,
        0.0,
        0.0,
        0.0,
        0.0,
        0.0,
        0.0,
        0.0,
        0.0,
        0.0,
        0.0,
        0.0,
        0.0,
        0.0,
        0.0,
        0.0,
        0.0,
        0.0,
        0.0,
        0.0,
        0.0,
        0.0,
        0.0,
        0.0,
        0.0,
        0.0,
        0.0,
        0.0,
        0.0,
        0.0,
        0.0,
        0.0
      ],
      "scales": [
        1.0,
        1.0,
        1.0,
        1.0,
        1.0,
        1.0,
        1.0,
        1.0,
        1.0,
        1.0,
        1.0,
        1.0,
        1.0,
        1.0,
        1.0,
        1.0,
        1.0,
        1.0,
        1.0,
        1.0,
        1.0,
        1.0,
        1.0,
        1.0,
        1.0,
        1.0,
        1.0,
        1.0,
        1.0,
        1.0,
        1.0,
        1.0,
        1.0,
        1.0,
        1.0,
        1.0,
        1.0,
        1.0,
        1.0,
        1.0,
        1.0,
        1.0,
        1.0,
        1.0,
        1.0,
        1.0,
        1.0,
        1.0,
        1.0,
        1.0,
        1.0,
        1.0,
        1.0,
        1.0,
        1.0
      ],
      "missingValue": 0.0
    }
  },
  "classifier": {
    "class": "ANN_MLP",
    "statmodel": {
      "opencv_ml_ann_mlp": {
        "format": 3,
        "layer_sizes": [
          55,
          2
        ],
        "activation_function": "SIGMOID_SYM",
        "f_param1": 1.0,
        "f_param2": 1.0,
        "min_val": -9.4999999999999996e-01,
        "max_val": 9.4999999999999996e-01,
        "min_val1": -9.7999999999999998e-01,
        "max_val1": 9.7999999999999998e-01,
        "training_params": {
          "train_method": "RPROP",
          "dw0": 1.0000000000000001e-01,
          "dw_plus": 1.2000000000000000e+00,
          "dw_minus": 5.0000000000000000e-01,
          "dw_min": 1.1920928955078125e-07,
          "dw_max": 50.0,
          "term_criteria": {
            "epsilon": 1.0000000000000000e-02,
            "iterations": 1000
          }
        },
        "input_scale": [
          1.8148850216015688e-01,
          -4.8911151332162275e+00,
          2.6416745329356239e-01,
          -5.5690539905374781e+00,
          6.4176252947207786e+00,
          -5.0444415377986971e+00,
          5.4982144236698982e-01,
          -4.4095204511329564e+00,
          9.8479025336294956e-01,
          -4.6598046779325415e+00,
          5.2986324554244204e+00,
          -3.8372809852597678e+00,
          2.4322422563657548e-03,
          -2.3178661117648865e+01,
          5.7919627759506564e-06,
          -6.1236302571750283e+00,
          2.0229124687080207e-03,
          -3.6456201526887506e+00,
          1.4691912613589563e-03,
          -1.8574691279109011e+01,
          8.6634154618036436e-04,
          -3.9149974471890667e+00,
          5.9435650532920110e-04,
          -4.8284333779933641e+00,
          2.6953837968644780e-03,
          -8.1917893777446089e+00,
          1.2276361904328670e-05,
          -4.1720553008318149e+00,
          6.7261518507439012e-03,
          -3.3897529339842736e+00,
          2.0608352518559237e-03,
          -8.1196908923123399e+00,
          2.9571958804300389e-03,
          -5.3797307456783265e+00,
          1.9453789130878516e-03,
          -4.1257595988767157e+00,
          8.1955481656953595e-04,
          -1.7112123091402911e+00,
          7.9353766429095601e-06,
          -1.7874308922127498e+00,
          3.1626362510190952e-03,
          -1.4457281746362094e+00,
          6.4790430849768284e-04,
          -2.0068188051407230e+00,
          1.6449846337307516e-03,
          -1.7380907639999119e+00,
          7.4641346400081523e-04,
          -1.5232805973328636e+00,
          5.4907770633585616e-02,
          -5.3754707450280321e+00,
          3.6980170777040533e-01,
          -1.4258656883861523e+01,
          1.1852243797692980e+01,
          -9.7330973786396520e+00,
          7.9281659290689821e-01,
          -1.1124746759337434e+01,
          6.4587102313364042e-01,
          -6.1928673662688025e+00,
          5.4143939434367860e+00,
          -3.7608919170133190e+00,
          7.0881276019968138e-04,
          -4.2432402032691767e+00,
          2.6130721133008272e-03,
          -8.1695308559293558e+00,
          1.4954537769830479e-03,
          -1.9191158320023455e+01,
          2.1566121316463878e-03,
          -2.6690231741255692e+00,
          2.3240807710666680e-03,
          -3.9515962353737457e+00,
          4.2458864479597777e-03,
          -4.0403287903914578e+00,
          2.0608352518559237e-03,
          -8.1196908923123399e+00,
          2.9626874011452905e-03,
          -1.5240063991491373e+00,
          2.2812151570669259e-03,
          -2.7793578620791894e+00,
          2.8365388686713991e-03,
          -2.4078813710680951e+00,
          8.8681712553080692e-04,
          -3.6370143952269451e+00,
          8.8814570126893293e-03,
          -2.1102341862149845e+00,
          6.7369534612792892e-04,
          -3.1314592109712791e+00,
          2.5574033300549792e-03,
          -6.1277728906991245e+00,
          1.0692411394598821e-03,
          -1.2669652109688036e+01,
          2.1566121316463878e-03,
          -2.6690231741255692e+00,
          2.4755934429246920e-03,
          -2.9749740082583567e+00,
          9.3183575075609024e-03,
          -4.9229511178328389e+00,
          2.3782128124443889e-03,
          -6.5529275834092697e+00,
          2.9626874011452905e-03,
          -1.5240063991491373e+00,
          3.1525860711710979e-03,
          -2.9979388323350649e+00,
          6.9705071818152659e-03,
          -4.6233403471131895e+00,
          9.6701531885731967e-04,
          -3.8067525042137245e+00,
          8.8814570126893293e-03,
          -2.1102341862149845e+00,
          1.2236517880464007e+01,
          -3.4414931572610330e+00
        ],
        "output_scale": [
          1.0,
          0.0,
          1.0,
          0.0
        ],
        "inv_output_scale": [
          1.0,
          0.0,
          1.0,
          0.0
        ],
        "weights": [
          [
            -9.5943441392409523e-01,
            -2.1801935448527562e-01,
            8.0713328662926909e-01,
            -7.7481328749532830e-01,
            -9.2720388482771687e-01,
            5.4796516882772428e-01,
            -3.4971446911217341e-01,
            7.0181797118489236e-02,
            -1.2904635815440184e+00,
            4.8035094276927981e-01,
            -2.0800218824941796e-01,
            -4.9262992081593615e-01,
            1.4957024510181305e-01,
            -3.4224182954132215e-01,
            -5.4303272743560249e-01,
            1.8690399303329266e-01,
            -4.9113370658860561e-01,
            -8.2092119216800541e-02,
            6.3703665875581683e-01,
            9.9895943879071902e-01,
            6.8144267919660073e-01,
            4.5696232191466990e-01,
            2.8724367026813850e-02,
            4.9570536194001158e-01,
            4.5667413695457737e-01,
            -1.4616710820733336e-01,
            5.2307676716980417e-03,
            -6.6587896882796505e-01,
            -3.4578209831879847e-01,
            -6.2500469230450373e-01,
            4.4692495269225563e-01,
            -1.3072552146699321e+00,
            1.0968073597756829e+00,
            -9.4906642639475836e-01,
            8.0935317254483941e-02,
            -1.6774117926215301e-01,
            -2.0930756626586313e+00,
            1.1209223123171359e+00,
            -1.9690665693912552e+00,
            1.7603441575295704e+00,
            -1.0642412606761811e+00,
            1.5066951449616615e+00,
            -2.2490460000240780e+00,
            1.2236798950243233e+00,
            -1.9338783934700003e+00,
            2.0530800208109810e+00,
            -1.2032818045614624e+00,
            5.5162737699839504e-01,
            7.8491431785880361e-01,
            -7.5350913575704892e-01,
            -6.6006276996609659e-01,
            -8.3269645412889393e-01,
            -8.7851302234390405e-01,
            -1.3416812622704796e-01,
            -1.0228003063752469e+00,
            7.7611929635086574e-01,
            8.6740275345891948e-01,
            -4.9848673253617337e-01,
            -8.8724227148099744e-01,
            -3.6969913750860101e-01,
            -7.3519943680523070e-01,
            -7.5728503988731255e-01,
            5.3719201109314574e-01,
            -1.8469117098993654e-02,
            -5.9554258627168670e-02,
            -3.0463055816411394e-01,
            4.8295041731354127e-01,
            -1.9481857514384899e+00,
            1.7957924422466415e-01,
            -7.1015827882883098e-01,
            -4.7072354260767635e-01,
            5.5590506640638726e-01,
            7.7512980904144546e-01,
            -1.3021450427422707e+00,
            6.8955832499533964e-01,
            -3.9612058675059664e-01,
            -1.2724837952341794e+00,
            1.2586168088380658e+00,
            4.5521281498259714e-01,
            1.1483422184367225e+00,
            -5.3719263461570899e-01,
            -3.8065380261849918e-01,
            -1.1071708036455208e+00,
            6.2456652517711853e-01,
            4.4374734662285148e-01,
            -1.2616460432498104e+00,
            8.6010031000228138e-01,
            2.1663428950857477e-01,
            -7.4158473820839865e-01,
            7.3430472791201140e-01,
            1.0634405779843317e+00,
            -6.6784870840520827e-01,
            -2.7855837538985412e-01,
            3.7859447349121950e-01,
            3.6505340849340073e-01,
            5.3083462820619029e-02,
            8.1629422654308792e-01,
            -5.5508084340957464e-01,
            4.5722022142570817e-01,
            -1.1005417355948921e+00,
            -1.5199812121558933e+00,
            3.4300377201390686e-01,
            2.3873331866483311e-01,
            3.2492626211762549e-01,
            2.6492305971371943e-01,
            2.0805514530978836e-01,
            -2.8335850022456824e-03,
            9.4616078786356872e-01,
            -1.0973152299777176e+00,
            8.6696334342726400e-01,
            -3.5187847046456411e-01,
            6.7896005797181647e-01
          ]
        ]
      }
    }
  },
  "pathClasses": [
    "Ignore*",
    "ki67 Positive"
  ],
  "requestProbabilityEstimate": false,
  "filter": "DETECTIONS_ALL",
  "timestamp": 1740568895238
}